import cv2
import imutils

# Menginisialisasi detektor orang berbasis HOG
hog = cv2.HOGDescriptor()
hog.setSVMDetector(cv2.HOGDescriptor_getDefaultPeopleDetector())

# Membaca streaming video
cap = cv2.VideoCapture('vid.mp4')

while cap.isOpened():
    # Membaca bingkai (frame) video
    ret, image = cap.read()
    
    if ret:
        # Mengubah ukuran gambar
        image = imutils.resize(image, width=min(400, image.shape[1]))
        
        # Mendeteksi pejalan kaki
        (regions, _) = hog.detectMultiScale(image, winStride=(4, 4), padding=(4, 4), scale=1.05)
        
        # Menggambar kotak merah
        for (x, y, w, h) in regions:
            cv2.rectangle(image, (x, y), (x + w, y + h), (0, 0, 255), 2)
            
        # Menampilkan Gambar keluaran
        cv2.imshow("Deteksi Pejalan Kaki - Video", image)
        
        # Tekan 'q' untuk keluar dari video
        if cv2.waitKey(25) & 0xFF == ord('q'):
            break
    else:
        break

cap.release()
cv2.destroyAllWindows()